digraph Tree {
node [shape=box, style="filled, rounded", color="black", fontname=helvetica] ;
edge [fontname=helvetica] ;
0 [label="sepal length (cm) <= 5.55\ngini = 0.66\nsamples = 88\nvalue = [49, 45, 56]\nclass = virginica", fillcolor="#8139e512"] ;
1 [label="petal length (cm) <= 2.6\ngini = 0.34\nsamples = 35\nvalue = [47, 13, 0]\nclass = setosa", fillcolor="#e58139b8"] ;
0 -> 1 [labeldistance=2.5, labelangle=45, headlabel="True"] ;
2 [label="gini = 0.0\nsamples = 28\nvalue = [47, 0, 0]\nclass = setosa", fillcolor="#e58139ff"] ;
1 -> 2 ;
3 [label="gini = 0.0\nsamples = 7\nvalue = [0, 13, 0]\nclass = versicolor", fillcolor="#39e581ff"] ;
1 -> 3 ;
4 [label="petal length (cm) <= 4.75\ngini = 0.49\nsamples = 53\nvalue = [2, 32, 56]\nclass = virginica", fillcolor="#8139e56a"] ;
0 -> 4 [labeldistance=2.5, labelangle=-45, headlabel="False"] ;
5 [label="petal length (cm) <= 2.6\ngini = 0.12\nsamples = 20\nvalue = [2, 28, 0]\nclass = versicolor", fillcolor="#39e581ed"] ;
4 -> 5 ;
6 [label="gini = 0.0\nsamples = 1\nvalue = [2, 0, 0]\nclass = setosa", fillcolor="#e58139ff"] ;
5 -> 6 ;
7 [label="gini = 0.0\nsamples = 19\nvalue = [0, 28, 0]\nclass = versicolor", fillcolor="#39e581ff"] ;
5 -> 7 ;
8 [label="sepal width (cm) <= 2.55\ngini = 0.12\nsamples = 33\nvalue = [0, 4, 56]\nclass = virginica", fillcolor="#8139e5ed"] ;
4 -> 8 ;
9 [label="petal width (cm) <= 1.65\ngini = 0.48\nsamples = 3\nvalue = [0, 2, 3]\nclass = virginica", fillcolor="#8139e555"] ;
8 -> 9 ;
10 [label="gini = 0.0\nsamples = 1\nvalue = [0, 2, 0]\nclass = versicolor", fillcolor="#39e581ff"] ;
9 -> 10 ;
11 [label="gini = 0.0\nsamples = 2\nvalue = [0, 0, 3]\nclass = virginica", fillcolor="#8139e5ff"] ;
9 -> 11 ;
12 [label="petal length (cm) <= 4.85\ngini = 0.07\nsamples = 30\nvalue = [0, 2, 53]\nclass = virginica", fillcolor="#8139e5f5"] ;
8 -> 12 ;
13 [label="sepal length (cm) <= 5.95\ngini = 0.41\nsamples = 4\nvalue = [0, 2, 5]\nclass = virginica", fillcolor="#8139e599"] ;
12 -> 13 ;
14 [label="gini = 0.0\nsamples = 1\nvalue = [0, 1, 0]\nclass = versicolor", fillcolor="#39e581ff"] ;
13 -> 14 ;
15 [label="petal width (cm) <= 1.6\ngini = 0.28\nsamples = 3\nvalue = [0, 1, 5]\nclass = virginica", fillcolor="#8139e5cc"] ;
13 -> 15 ;
16 [label="gini = 0.0\nsamples = 1\nvalue = [0, 1, 0]\nclass = versicolor", fillcolor="#39e581ff"] ;
15 -> 16 ;
17 [label="gini = 0.0\nsamples = 2\nvalue = [0, 0, 5]\nclass = virginica", fillcolor="#8139e5ff"] ;
15 -> 17 ;
18 [label="gini = 0.0\nsamples = 26\nvalue = [0, 0, 48]\nclass = virginica", fillcolor="#8139e5ff"] ;
12 -> 18 ;
}